
/* Trace */

/**
 *  updated on 02/13/2025 08:16:05
 */

#ifndef __W_DEV0_H
#define __W_DEV0_H

char name_dev0[] = "Trace/dev0";

long weight_0_T_dev0[1*12] = {
0,512,1,1,1,1,17,17,17,0,0,0
};

long weight_1_T_dev0[128*12] = {
59,-7335,-25,72,82,-120,1638,151,386,-8619,-15,-3576
,-209,-500,-26,169,419,-15,-16,628,800,360,67,166
,-350,-101,-406,-440,-229,-281,467,857,269,12,607,-164
,116,92,-24,-416,-343,-363,449,-288,-296,-7712,255,126
,-178,-57,-158,451,275,-81,541,503,-276,415,45,44
,85,136,-6,12,12,24,-3819,536,730,16,-52,-583
,6,131,-317,-27,319,123,224,2114,68,102,-4616,226
,-448,-153,210,148,42,-113,944,553,-304,283,275,-92
,80,106,31,-49,71,1,2161,434,243,-8252,-4992,-2
,10,-15,-36,-87,177,-42,1491,631,680,293,180,-4058
,-320,52,-189,-62,-445,-720,441,-231,-74,-37,-29,248
,51,142,99,86,-108,-16,-1880,-134,426,268,510,-806
,-116,25,215,234,155,-141,185,1376,-203,242,178,1
,8,27,406,-88,-45,-256,-32,-380,-4196,271,505,151
,25,137,57,-60,-15,126,1086,282,-117,-10428,22,-30
,-116,-86,141,-168,104,-213,6,101,-221,-130,-115,-45
,-32,-5593,204,-181,-5,18,2686,-741,-561,-3177,29,-45
,-207,69,-112,126,153,-118,-1581,-755,-370,259,269,329
,27,46,134,-107,8,24,2939,219,-108,-4799,-293,2
,-150,-92,-50,-158,138,325,635,910,645,-4835,-209,191
,90,27,-22,-65,-159,244,-3135,82,333,73,11,110
,88,276,-187,-405,-256,-237,1341,63,-496,410,-578,-766
,54,-11181,-224,98,132,128,601,1703,-97,13,-5210,90
,-17,23,32,-57,-93,108,579,253,175,-8892,-4875,-4578
,-161,-130,-157,170,-198,-74,-94,-155,58,-96,18,108
,-69,190,-1843,-507,340,534,-245,-33,317,-1532,-38,-113
,9,-12,106,-207,24,2,-4544,1067,645,185,225,-200
,-92,-30,-417,-36,517,696,-59,717,-37,-3339,-167,-8
,154,247,-76,-34,15,94,-3559,-178,-925,496,87,-105
,-72,-103,107,-124,61,-175,-42,67,-57,-100,-106,77
,-84,-461,-287,-227,-452,-284,208,52,-71,144,489,230
,-57,-95,-135,-210,-202,15,43,-227,50,9,69,-147
,107,-659,-264,-64,38,-174,102,1337,920,-36,-1971,-2239
,-200,-204,139,-262,23,123,-188,-165,1,-190,73,44
,-84,-102,-214,17,-331,-283,68,471,902,-151,720,0
,-131,125,804,180,-39,10,204,-2746,117,-306,-68,120
,-95,-715,-125,-488,11,-15,630,172,-271,-78,-256,177
,136,258,-8,61,-36,-47,-218,-3183,-1725,222,-391,-11
,-231,-91,37,133,-236,-28,45,56,24,-115,-18,99
,-66,59,-14,19,23,14,3068,-126,354,-4698,159,235
,-36,-136,-619,-1145,0,88,528,-772,-212,210,-77,165
,-78,77,-225,-717,-987,-392,-191,413,863,56,205,231
,-80,66,-1,13,3,6,2969,-184,-194,-5030,31,88
,-513,25,480,165,-2,2,990,74,227,411,-162,-116
,30,69,-4,-2,-21,-9,1839,545,387,-8283,-4206,-36
,123,-5466,-84,85,38,-398,1018,178,-97,-6200,24,89
,-182,-145,-100,-25,0,-175,182,-115,-14,-158,81,-184
,-18,41,-205,-108,-73,13,-78,-85,-13,48,-170,47
,58,-743,-358,90,36,-58,1322,88,903,-1705,297,-3210
,-148,-2,-301,-455,53,393,-83,-278,-297,-1621,345,343
,43,-221,238,-308,-312,-152,518,265,14,-509,-667,-98
,67,191,-72,-315,-67,207,-698,-177,-273,-22,92,-31
,-19,-992,-280,90,-45,-206,260,525,483,-118,-85,164
,266,195,-954,-849,-582,-419,-894,-609,-838,-115,-63,-7
,-235,221,-213,19,280,201,-1337,-1244,-1081,346,4,234
,28,-991,-210,-6,108,-184,1190,1041,871,366,198,219
,6,-44,-840,-337,-271,76,-859,-1391,-81,663,-363,-286
,-224,-184,594,483,63,-177,934,493,577,-21,61,-9
,79,218,435,-309,-86,-26,-114,-2805,-1508,203,-197,38
,-74,-46,59,47,158,-238,1423,209,861,-2359,105,-5
,-7,12,-305,-626,-408,-567,897,136,-364,-1347,51,170
,-54,61,232,265,-27,-180,1814,-218,123,95,129,151
,-174,109,561,70,150,-201,798,549,308,299,-1423,-523
,-460,120,-735,106,272,254,131,-2634,256,-1,60,209
,-246,-213,126,201,159,-56,254,706,548,265,327,341
,83,149,-1197,-271,100,431,-985,-1330,-1375,176,265,-73
,-123,-205,141,-28,-149,-61,12,-111,-95,47,-133,-120
,53,126,-53,-5,-209,162,1694,361,53,-8371,34,-9
,56,-24,339,-263,-65,-198,-1490,-305,483,13,-259,-86
,-99,-70,88,-163,49,-127,-1679,-12,-42,81,92,83
,-203,-27,47,-219,-222,-111,-574,12,12,-856,760,671
,58,70,283,-359,-200,303,-1130,-3573,11,486,56,284
,85,-5,76,-101,-94,371,1057,914,-1395,-227,107,-147
,-211,134,933,469,138,131,-187,59,143,-230,116,75
,355,83,133,-571,-1030,-774,-131,-273,-257,-107,-528,-207
,-149,-63,-138,-38,-21,-224,-246,-230,-234,134,13,-69
,71,133,17,4,9,-6,1032,308,90,-9020,-4726,-6
,-108,-4081,-207,-160,-3,176,710,583,924,374,351,-2620
,161,36,-205,71,69,3,-3050,-925,-1464,304,189,-202
,59,94,48,-74,32,-8,-3922,482,532,53,-84,-19
,-221,73,619,301,49,-174,953,565,178,606,370,287
,-38,-17,104,-99,21,23,3430,-1203,-736,-4954,62,47
,-593,74,-649,186,318,278,287,464,-1632,50,557,163
,-102,-119,114,-202,-3,-228,-188,58,139,72,-49,-31
,1,-246,-647,-1137,203,204,793,114,-533,379,-486,-210
,-116,78,263,-191,-114,120,-1287,-509,498,-117,-122,113
,50,139,92,-72,-103,183,-3444,-558,135,135,71,239
,-69,-41,-95,37,-97,-231,-198,-54,-86,-79,40,115
,41,80,-469,-186,-187,-89,453,317,-897,-68,-2799,81
,115,175,185,-654,-466,251,-915,-55,157,-164,-530,-235
,94,116,-164,112,168,76,-2535,-1734,-2367,-107,138,81
,-40,180,-537,-575,-935,-1073,21,-31,396,-321,-159,25
,60,150,-31,-123,182,167,-2529,-1506,-2522,107,159,46
,34,59,-82,8,-62,149,1483,292,136,-8060,-4918,-12
,121,-148,157,-610,-1213,-585,355,783,843,11,-161,-4
,55,-13132,279,91,-119,253,1116,-66,-699,-8577,8,-467
,132,262,461,-115,8,194,-1639,-566,63,-460,-89,8
,23,91,-190,-180,-68,-133,-492,-303,42,-123,71,-105
,13,-89,138,-255,87,2,750,44,-544,-7286,-4030,105
,65,164,59,-467,-98,168,-1039,312,556,-164,-863,-1659
,-200,-197,31,134,-2,-97,11,-163,-53,47,24,-8
,-47,70,-268,108,-371,560,248,870,-720,82,-29,38
,24,-7770,-390,12,263,124,2822,159,337,-4703,148,-354
,-15,64,-166,-285,-419,169,294,1418,-136,643,-4915,222
,60,-72,-769,61,320,617,-466,-133,-1308,968,130,-240
,21,141,644,-49,-256,51,421,-2399,-2211,-28,133,6
,68,141,8,-16,-19,-15,-308,-626,213,-8602,-7363,-7494
,101,160,183,-202,7,0,-4088,76,536,70,1,-917
,-22,99,-276,37,69,5,1726,445,403,-7671,165,-2578
,59,78,8,-99,165,-157,1332,-693,-121,-957,52,-1682
,14,92,81,-164,-19,2,-3504,-159,874,114,158,-2164
,-15,154,163,-312,-89,85,-864,-648,95,-170,-271,-64
,-426,58,480,-3,-5,-44,550,393,-101,539,134,-527
,-527,-28,-151,-521,207,254,844,598,-424,323,576,140
,-41,-4,6,-51,109,-36,1459,62,258,-9097,27,-3403
,214,-5388,295,-24,-645,-751,1293,129,-1063,51,9,84
,-120,-145,-232,-21,-31,-240,131,-11,94,-186,97,-216
,203,-194,360,-586,-1311,-1010,-221,122,155,-105,147,64
,-122,-282,-186,-131,-77,-69,186,47,301,-18,57,-484
,-42,-1190,-144,-51,-206,-319,729,447,505,-1994,-104,212
,-55,32,84,120,-60,-167,105,2096,458,194,-6346,-3757
,-14,-591,-26,-489,-67,-217,118,402,552,672,322,-1657
,-202,-62,430,112,359,245,487,644,-3,-3235,-89,309
,-33,184,146,-123,-68,12,-1210,-3560,824,235,108,29
,-205,53,-148,-264,-298,-42,-304,-172,81,-3960,692,-386
,-66,107,-232,290,249,14,35,1615,-224,409,-2802,55
,-245,78,-115,-32,96,111,-1591,-975,-2107,155,101,104
,-122,-149,-177,-31,-52,-125,-28,-1,-207,135,-161,-164
};

long bias_0_dev0[1*12] = {
1073741824,341,11069503,11069503,11069503,11069503,119278,114228,137978,190583,183986,183986
};

long bias_1_dev0[1*128] = {
-41,-227,-88,226,-227,-5,-58,-154,-68,-79,-75,-180,-209,50,18,-28,-39,-205,-121,-56,-1,-120,-25,51,0,57,4,-119,36,-35,-55,-13,-44,-77,61,32,-248,57,-42,-22,16,132,-7,-179,-20,-35,0,-78,-115,-114,-144,58,-173,115,-153,-2,-149,-19,80,-139,-185,-186,-103,-16,-301,-109,0,-8,-158,-64,-47,-39,-123,-16,214,-52,-40,-54,36,41,-176,-43,-31,-51,-163,-123,101,-41,-221,107,-12,130,12,1,53,42,75,-127,24,17,0,-59,-96,-61,-83,38,6,6,-38,-141,33,-107,-213,-86,58,6,-69,133,-27,-151,95,-38,-204,47,-222,-34,-125,-9
};

long weight_2_T_dev0[16*128] = {
-474,225,479,100,90,-455,-524,659,-538,-676,-225,-227,863,683,258,-80,-4322,-148,-1727,84,78,130,-347,-1152,-182,647,1170,342,118,-77,56,216,-421,-149,-9,362,-5,648,6,-1303,37,486,-2155,3,-556,-124,48,-90,-916,76,133,336,238,392,182,126,327,-100,653,-236,188,72,-350,452,561,277,184,-36,47,136,382,500,253,189,74,-7,-250,-465,-35,-294,-97,-4876,298,74,343,267,389,145,-33,224,5,794,255,148,424,142,308,167,251,37,-80,275,-899,-973,309,690,-2234,-440,-403,-327,-213,211,-272,612,-280,91,88,195,277,-82,-564,-113,-359,935,51,-244,408,-96
,-1089,-582,36,217,437,-43,-879,927,-932,-152,156,-216,272,1092,39,-150,-2086,105,-1629,-90,-191,-65,-761,-3507,150,293,823,-204,-105,-111,-10,108,-218,-83,-371,424,-146,157,-63,-587,127,223,-1144,158,-968,196,36,25,-906,-186,180,-89,-343,241,937,-579,-26,-76,55,-389,264,355,-193,1374,322,-266,176,-106,61,-73,-35,53,656,377,491,45,-750,-473,-238,-185,-602,-3314,652,210,-104,36,84,-94,-112,10,-441,-98,-294,-1179,323,283,173,-10,-109,-107,-152,361,-1995,-564,-657,606,-4922,20,-1566,452,55,-33,217,326,-725,271,-115,305,65,76,-1187,-413,-128,1247,-457,-476,628,-63
,5,-440,0,413,-101,-4,229,8,-15,69,-233,128,93,-700,240,103,49,89,-348,61,-215,-21,415,-258,59,155,-900,431,-234,182,-238,169,-112,-106,519,-137,5,-1037,-86,-328,-752,431,-34,-182,-358,155,-162,208,-118,206,184,-128,-147,-768,-210,103,307,-190,-661,-459,-14,-54,-408,392,-307,-392,-94,360,5,115,371,-580,328,-63,-104,127,-191,357,-475,-57,7,-274,478,-65,-439,102,-289,-78,231,-43,-357,-51,-256,20,640,490,36,165,654,-519,160,583,-286,852,-300,-216,-367,-42,-86,-268,-192,-28,-136,-261,217,-20,52,93,245,347,-65,570,394,-468,341,125,51,-137
,-73,11,13,-138,-15,-194,-170,-283,186,-224,32,81,109,-118,-51,92,-191,-12,-183,177,-216,-117,103,-33,33,-4,39,155,-142,-130,26,-119,-84,192,-128,62,-110,46,40,169,44,38,-31,-62,20,-38,80,-124,-29,30,-27,17,117,-197,70,146,5,-226,-250,-59,107,-120,26,101,-70,-76,-104,-181,-189,127,123,-66,-234,-184,-81,-34,37,-186,136,69,-113,-44,-188,16,-56,35,-176,190,-189,12,71,-143,62,-193,-84,-46,-222,-164,-89,-64,-186,-152,-187,-91,1,118,3,56,58,-51,98,-115,-21,22,96,-150,-151,100,-204,67,95,88,-128,-85,68,123,-129,97
,-2146,-70,-553,-557,-413,1078,540,-270,-2888,-816,-80,660,120,-276,-940,-45,-834,461,-975,-472,208,-964,321,-3805,-193,408,1469,-267,-29,32,617,17,1237,186,-696,-106,101,-589,68,-972,250,-409,-1069,-453,-2330,-462,179,149,661,79,71,2,-341,-150,767,-844,-201,-435,-659,-1086,-315,-466,407,317,-31,-134,150,-1124,28,118,444,-178,-424,340,252,182,-2526,-539,-200,992,-389,-676,-53,44,31,157,497,30,-44,321,-393,21,-325,-1798,-57,-292,222,81,-944,534,-51,-153,-748,-179,-456,-111,-3131,1192,-1377,75,968,-23,-484,-389,-2114,-310,130,-230,25,-30,651,-179,488,516,470,395,327,44
,-325,-256,-469,74,-87,-1063,-283,-14,-379,-708,28,-64,467,952,344,115,-3731,-39,-1841,-180,-310,248,-230,-1350,21,898,628,397,-227,165,-63,-137,-791,-46,-171,411,31,637,-175,-2414,-215,381,-3280,-221,-788,-54,-21,-40,-369,287,-83,100,-23,504,255,-700,338,-217,733,-915,195,578,-533,721,-512,366,-58,239,-219,-25,-40,112,77,323,89,64,-159,-379,-40,-977,-848,-5961,232,-214,235,-31,20,38,465,-42,-21,-19,198,108,525,454,256,10,414,-204,-96,406,-460,-196,74,785,-2857,-927,-66,-586,-712,39,-335,-181,434,309,4,509,61,109,-1042,76,162,656,170,-57,395,110
,473,-743,93,184,192,130,263,248,247,-301,-208,-22,69,-774,532,-59,392,-369,204,-264,-342,137,462,341,-155,362,-1586,33,-518,59,71,-53,-159,156,172,293,169,-988,-135,439,-535,167,570,-7,338,-70,-41,-63,-248,-71,100,-90,39,-959,12,-139,94,41,-230,-367,-126,116,-73,432,-342,0,-187,392,-6,-102,-8,-1623,-99,363,214,-161,110,-18,-591,-7,-548,434,343,115,-461,-154,-1029,-6,202,244,-1699,-184,-588,404,576,738,169,106,320,55,59,-135,312,906,-78,430,588,40,130,-473,53,53,-131,-490,698,323,-67,-70,313,183,-101,344,-134,-849,267,-21,-49,131
,-230,561,1182,-1071,300,-139,-1075,542,-146,-202,328,-832,820,816,-1410,88,-66,124,-64,-109,82,354,-513,-284,154,-247,112,-144,-363,-40,-433,-66,-273,88,-285,32,-124,534,82,94,-196,-239,94,78,-195,-1109,-139,-105,-835,-591,433,-813,275,-251,702,465,107,85,582,228,28,380,-339,896,998,-258,-36,-1149,-72,14,-549,334,9,-143,356,79,256,-239,-87,-232,370,389,761,115,-182,-271,-365,-117,-214,-77,-259,526,61,-449,77,-43,-708,18,-372,-349,35,174,110,-395,113,974,-144,-393,-882,241,-273,-501,308,1947,-1140,550,85,-723,42,132,-1051,-139,137,-88,-848,-787,232,79
,891,20,266,98,46,-1852,-439,276,433,216,91,-137,426,301,618,-78,-135,-287,148,-191,-409,206,-87,1043,90,-724,-131,-502,15,-50,-66,-119,-253,142,244,86,161,282,-31,117,445,-378,-225,138,783,509,182,-36,242,125,77,-90,68,357,64,299,-498,-27,149,325,451,813,149,-184,368,-303,-52,460,-133,-319,-124,-261,213,207,-76,195,1014,-538,103,-1276,850,-291,220,171,499,-131,186,72,297,-234,347,-55,410,574,-393,112,-225,-36,722,-87,-100,203,-232,-714,-660,249,765,-1486,731,543,-1215,-44,670,799,1028,228,181,-52,-242,-299,-117,-643,-115,42,-328,-301,94,178
,-109,-209,-522,814,223,388,60,-197,-106,-91,-158,-244,-280,-658,-290,117,99,216,-24,116,340,-15,167,91,64,-361,-1146,371,351,162,-170,13,40,60,128,-216,-120,-401,-20,-471,-296,54,20,370,-313,-91,132,-70,284,-224,48,266,-173,117,97,-5,-391,-162,-344,-394,2,382,30,-92,-22,-176,136,-180,512,60,-241,28,333,-20,837,-152,-124,526,296,554,-21,303,-427,98,10,317,226,141,-75,309,228,-605,426,-460,511,-229,280,170,202,55,143,322,-475,915,338,-525,859,477,-765,-81,266,269,294,-680,-193,511,13,691,73,-45,-120,884,350,-778,-263,507,-130,-78
,20,-498,102,364,157,244,306,-72,193,-85,-149,182,-239,-818,625,-16,494,168,114,201,-221,155,460,171,-123,73,-1456,-82,-558,165,-185,-159,71,-163,477,363,-216,-817,-177,240,-553,473,260,-220,-94,68,-65,-26,-201,356,7,132,121,-881,241,-30,293,17,-498,-327,-60,-101,-186,313,-276,32,190,734,-15,-11,140,-901,192,285,68,34,277,64,-566,29,-224,320,218,65,-521,41,-774,69,-42,-61,-818,31,-667,299,619,602,184,65,745,-150,-131,343,193,1303,-162,162,495,-27,34,-246,-144,20,104,-716,349,0,33,212,322,283,-19,759,-58,-509,283,-97,-44,53
,436,-445,581,649,-453,256,-287,-77,28,-805,-130,3,480,-194,455,-73,85,58,168,404,-126,-720,514,269,-106,317,-874,73,-500,217,188,191,-588,78,362,351,-248,-780,112,204,-271,365,501,-727,102,86,-21,-48,-502,133,108,145,183,-689,233,-302,166,61,-184,-199,166,-583,-374,692,80,16,102,609,-111,-19,534,-934,239,188,-61,72,265,-427,-682,48,-135,764,407,148,-721,-7,-710,-140,-131,-63,-1057,-85,-739,471,404,760,86,158,407,23,-49,291,432,726,-313,447,455,327,345,-265,224,-6,-15,342,554,-42,22,152,67,177,-643,142,58,-564,275,-280,112,114
,-692,-48,-7,109,342,-297,-318,-29,-421,-473,-484,108,471,402,149,161,-4359,-117,-1920,-111,138,24,-335,-1010,35,511,1180,189,285,180,12,29,-309,57,183,385,24,695,-139,-1438,293,360,-2086,-81,-523,140,-114,63,-484,145,-50,342,63,147,198,-88,392,-187,399,-454,-126,-15,-262,60,-72,425,-73,-50,217,147,342,464,-107,381,67,-2,-304,-517,280,13,-202,-4802,314,-208,236,383,646,-2,32,488,-119,389,190,88,59,1,430,18,325,256,-79,-30,-938,-709,195,513,-1617,-207,-527,-856,-39,144,135,571,-103,-3,166,243,-116,139,54,-58,-397,773,-201,147,382,57
,487,-538,562,390,-369,332,-445,-267,237,-689,-191,261,703,-178,558,-78,143,97,-169,148,-176,-701,246,12,181,333,-1070,342,-667,-169,140,-105,-497,27,593,167,-174,-939,-93,483,-361,255,583,-617,266,382,-9,37,-334,176,126,70,286,-683,-39,-375,-41,-105,-269,-60,289,-637,-775,764,-51,-260,56,627,-192,3,156,-886,285,204,23,110,309,-228,-527,280,-250,864,455,134,-394,75,-456,-76,-364,46,-992,240,-875,312,284,700,183,0,334,33,-55,342,500,338,-334,859,601,-54,213,-142,-136,101,-169,297,519,-156,16,144,-40,399,-336,295,2,-338,214,-335,72,48
,-466,-398,-104,594,-201,221,-2,-279,109,-54,-9,-117,-269,-418,120,13,262,-186,-91,-425,-96,87,-65,53,147,22,-1923,-144,161,-173,121,-8,-167,22,193,-765,36,330,134,-254,-415,204,109,147,-61,275,-119,-45,-482,-118,289,278,-264,-177,-167,94,-330,-1059,493,-536,339,216,-121,317,-272,309,194,-49,279,47,-394,-118,638,-820,546,-188,-101,423,74,207,-224,288,80,-16,-125,-195,-202,-44,245,396,-34,-47,123,-153,678,300,123,-12,210,326,161,370,-465,925,123,634,739,85,-556,-388,-8,218,184,-626,-169,444,120,597,-144,415,-320,589,-689,-236,-259,-30,-496,90
,-290,-374,239,654,187,337,291,-330,-326,114,-110,-1,-42,-599,-79,112,-183,333,-276,335,104,166,43,286,-158,206,-894,658,422,-99,-76,-92,-106,87,550,-246,197,-444,186,-194,-251,389,24,-155,-203,117,122,-82,-61,381,135,305,-50,-313,-103,37,-4,-423,-290,-498,-32,-149,-62,81,-298,282,127,-15,246,97,393,-315,227,-317,868,85,135,78,342,387,-144,14,121,-92,16,-2,-174,-47,122,437,136,111,415,-277,502,-32,243,77,229,172,-40,252,-437,941,314,-378,488,458,-352,-579,267,81,128,77,-77,635,-176,609,23,179,197,509,361,-299,206,247,-251,64
};

long bias_2_dev0[1*16] = {
279573,233179,46389,-61571,143916,128840,215523,1818,-18222,97773,207370,186014,281572,196500,270413,200420
};

long weight_3_T_dev0[1*16] = {
-1310,-1968,199,118,-3170,-1517,588,-1238,-1238,660,465,869,-1016,930,709,805
};

long bias_3_dev0[1*1] = {
166737407
};

#endif
