
/* Trace */

/**
 *  updated on 02/13/2025 08:16:05
 */

#ifndef __W_DEV1_H
#define __W_DEV1_H

char name_dev1[] = "Trace/dev1";

long weight_0_T_dev1[1*12] = {
0,1024,1,1,1,1,19,19,19,3,3,3
};

long weight_1_T_dev1[128*12] = {
47,169,146,-16,74,69,-67,-33,-98,221,-103,234
,129,-3,104,-198,-68,86,-72,-4,-158,-186,-138,19
,63,157,112,-15,-2,30,-35,-132,-12,-91,10,-98
,82,187,118,116,78,-162,-165,-182,27,235,-39,68
,-71,51,48,91,45,24,-297,99,-329,418,29,269
,-184,-126,-150,-62,93,-130,98,80,-36,44,-85,-36
,161,33,-4,-92,162,-24,-184,-60,-193,-23,100,242
,123,38,-105,27,127,-72,-81,24,-58,-92,-52,239
,242,-158,38,147,-78,145,-98,-193,-102,118,67,-61
,-48,83,-141,156,-54,-89,33,31,-200,-24,246,197
,-109,-192,39,30,-8,81,339,113,180,-313,-387,-412
,273,112,146,111,-54,141,-280,-23,-5,65,285,-41
,55,-62,69,133,94,79,184,-65,298,-449,7,-430
,87,179,106,87,126,-20,-185,-78,-70,39,111,93
,57,-138,-19,-20,102,60,322,359,122,-341,-639,58
,96,5,8,-19,20,-96,-220,-221,13,161,221,165
,33,185,-82,-70,-26,86,-110,77,-8,193,-30,154
,241,-111,-138,174,-7,21,-149,-93,-77,-28,0,15
,24,66,83,173,142,-164,148,177,119,14,-75,-88
,110,-14,-79,93,-117,170,-47,77,112,-151,-151,18
,164,-205,-99,73,88,156,16,-171,67,157,-126,-47
,161,-71,-58,-66,53,-51,-187,-22,-167,-38,-42,272
,247,-60,-29,-105,-54,153,-187,105,-58,-32,142,-13
,212,114,165,-52,48,-99,-178,111,-137,34,-48,35
,59,-145,93,-85,186,216,5,67,-110,58,-95,-12
,129,78,-54,-72,-14,-123,-87,-199,56,108,185,202
,70,53,83,-197,-133,43,-22,-23,-79,-205,-62,-122
,164,195,96,95,-24,-174,-170,54,-47,-82,-86,-82
,142,-34,53,253,181,-98,-3,245,318,-274,-165,136
,5,-146,89,33,167,-35,45,263,200,-72,99,-179
,39,54,-12,-53,49,85,-40,-161,-223,217,360,239
,19,142,53,119,16,-4,-140,87,75,-56,-11,5
,249,164,16,-63,168,-82,-66,-4,96,-97,-174,43
,242,153,23,11,126,-20,-146,-144,-268,321,291,77
,48,-178,76,54,83,-95,-72,28,61,-37,74,235
,44,-118,83,43,13,19,-219,-259,-62,370,382,354
,163,-85,166,172,-119,7,-142,-29,-33,249,125,-60
,14,163,-65,41,-37,31,331,301,-128,-494,156,126
,-130,191,195,-57,-22,114,6,-194,-79,187,-145,245
,175,-42,148,-20,-116,-146,95,240,176,-127,-141,-184
,-195,-186,-55,-70,-68,-34,49,152,88,35,-252,204
,5,-184,19,40,0,10,-273,65,-68,413,3,330
,-423,1,33,21,8,10,148,-165,-298,-177,316,452
,274,-140,-4,-116,139,-30,-21,-206,-173,19,82,-37
,9,-113,75,116,19,-69,-150,-203,22,127,395,13
,122,97,-71,90,149,158,131,25,98,-20,-132,187
,62,42,79,140,-122,62,144,136,-14,-157,66,51
,59,204,193,135,173,130,-11,289,164,-25,-379,11
,-74,-92,-60,-115,-55,1,20,287,140,240,-390,-391
,-55,77,4,42,3,12,396,120,343,-608,79,-487
,-26,85,-34,0,75,24,273,281,174,-396,-524,-547
,132,77,-102,-45,-84,135,320,263,40,-499,125,-1
,-485,-45,35,56,22,17,-410,113,-247,454,28,235
,46,-129,170,-79,10,79,-40,-256,-116,18,314,49
,208,-10,-44,-49,37,-119,174,213,156,-168,-120,-32
,82,38,91,0,-15,-31,-62,-248,-90,22,233,151
,302,-68,7,0,94,-166,188,-44,-41,-49,123,36
,38,-95,156,142,-4,122,-83,-177,-119,47,128,218
,121,97,97,-18,-110,40,-44,-98,-93,-5,21,193
,-20,101,16,16,90,44,311,71,193,-404,13,43
,3,162,131,86,-63,55,8,-27,169,285,-190,-110
,237,109,71,102,76,-101,-231,-78,-3,65,71,7
,112,169,-74,175,7,-100,-130,-43,73,-80,103,24
,176,-166,16,45,80,-71,218,360,132,58,-296,-70
,-152,-2,-130,-25,-176,-10,-163,-147,-168,-130,-108,-197
,29,-54,-152,-65,83,74,-60,-158,-80,365,405,-50
,133,197,126,0,11,-45,-262,-225,-3,70,64,310
,90,-111,-2,113,158,-103,-187,-158,124,6,89,11
,218,75,120,24,-53,88,-214,-35,-199,115,7,137
,142,194,86,246,74,137,246,29,251,67,-208,-61
,-82,190,-70,37,-46,84,274,324,323,65,-607,-445
,196,146,-86,86,104,205,-288,-90,114,239,55,223
,0,68,87,-4,34,-24,363,63,135,44,-518,-521
,0,13,166,45,32,-64,219,-217,47,-456,312,375
,215,-93,-157,165,-128,169,246,178,3,-80,-115,-278
,-256,-97,10,35,108,84,-89,164,247,132,-253,-356
,202,24,120,-88,-39,70,-242,-77,-108,187,-34,71
,103,68,65,4,90,28,-165,-55,-92,265,280,255
,-7,113,198,-145,137,-215,-108,-170,-183,-221,-17,28
,123,9,135,74,191,12,-253,-199,-11,132,211,44
,172,-130,131,-138,22,24,-151,-152,51,219,95,-14
,-48,-39,216,66,177,184,250,106,262,103,-128,-47
,-71,-109,-1,-57,-76,-90,259,359,7,-443,-109,147
,160,-147,-105,51,96,-168,-155,-114,-186,265,131,251
,106,-170,-32,-4,-14,-193,-1,14,-155,-95,-142,45
,228,-112,161,-39,-90,77,144,56,141,56,-242,169
,129,-117,88,103,188,176,-201,-104,-232,344,-142,302
,-40,-22,40,44,-1,6,-306,82,-397,468,9,340
,45,-109,101,81,131,144,-269,-88,62,33,250,82
,-53,61,29,155,17,4,309,195,178,-333,-569,134
,238,151,-37,-187,180,112,173,18,235,-94,21,48
,-168,-74,-181,-133,65,-182,24,23,-33,-177,55,-206
,178,180,112,6,57,-80,-266,-148,-10,267,126,73
,211,-192,-81,133,111,-128,-176,-221,-41,275,190,12
,-21,-36,31,-30,-15,11,131,37,-321,-242,124,229
,71,24,20,44,-65,237,234,69,253,-8,-63,-263
,265,113,-18,-23,-105,42,-153,-133,-246,267,314,62
,153,118,-28,101,-68,176,-208,-143,-123,151,41,211
,21,-117,67,-25,-56,-71,123,380,281,-456,-607,159
,142,129,-45,60,-13,-36,-315,15,-60,22,264,262
,148,24,-184,22,189,-17,-59,118,86,237,129,21
,216,-83,-38,34,-103,10,-216,58,-70,98,59,130
,198,168,24,136,-4,-99,77,86,-162,-78,-122,36
,181,168,42,-113,133,-117,31,-6,63,-94,-215,0
,232,34,-38,-33,140,153,-90,-104,-121,283,160,144
,215,-165,10,154,185,-11,273,286,155,20,-96,200
,256,110,-79,39,91,-21,-240,-238,-86,271,212,24
,-6,103,-46,-169,-126,-51,269,-80,299,-388,290,-370
,183,157,19,132,-173,133,-180,89,86,2,228,9
,6,-17,-28,6,29,40,213,208,382,-444,-437,-606
,162,201,-15,119,-105,179,-146,-32,-188,146,-39,48
,-74,-125,-29,-15,-25,35,-54,-447,-28,373,452,-38
,91,-181,100,118,177,11,-140,-31,-174,52,270,39
,18,-123,-3,29,20,84,-124,-222,-31,234,-69,64
,221,192,172,43,-125,116,172,91,92,-180,5,64
,-70,16,49,51,-85,189,-98,-253,-159,-9,282,44
,200,92,84,16,-82,96,-141,-156,-248,301,207,122
,134,-90,82,197,57,-54,50,-239,-62,-33,27,243
,77,-180,-123,-81,-28,-158,118,154,264,93,-72,-74
,314,-39,145,191,45,61,276,286,83,-254,28,55
,175,108,-85,-87,68,101,-96,96,-18,108,113,109
,-98,-123,-142,-99,71,50,299,129,60,-335,61,-440
,186,-167,58,109,142,-148,-217,-167,112,-32,120,-20
,131,48,31,85,-53,210,-160,-139,-90,216,200,-36
,-2,108,132,-16,56,27,-6,-87,-268,321,345,-78
,76,113,-30,-16,-141,-2,3,166,-182,-112,156,206
,177,51,190,113,-50,52,-1,98,12,94,123,204
,142,-177,44,102,142,115,163,-229,-74,328,153,-270
};

long bias_0_dev1[1*12] = {
1073741824,0,214748365,214748365,214748365,214748365,3807595,3780781,3780781,21053761,21053761,21053761
};

long bias_1_dev1[1*128] = {
89,-29,-26,133,14,88,168,104,143,93,-25,94,3,99,-86,139,77,164,84,86,127,190,111,171,108,134,-20,-34,71,41,59,39,166,118,65,-26,119,-79,100,-56,-48,-44,-25,182,67,74,-11,-57,-19,-83,5,-79,26,113,101,107,109,117,119,-88,-46,145,119,83,0,-21,128,123,163,105,-100,85,-18,-95,54,-17,168,9,-17,138,131,117,-98,113,-44,99,2,35,91,-82,4,-15,130,148,-3,35,156,148,-74,91,88,119,133,178,81,74,177,-22,81,-11,149,29,70,116,79,165,142,84,69,55,3,-9,167,121,57,108,52,-29
};

long weight_2_T_dev1[16*128] = {
-199,38,57,31,-62,77,133,-2,-193,-224,-176,-90,-99,150,171,107,-11,-126,-28,-131,-81,-248,120,-2,188,56,118,79,30,-182,143,-38,-103,118,-63,136,50,-52,-153,9,-69,11,-101,-136,182,-214,-53,102,155,9,-60,163,-215,122,99,143,-151,-117,-35,-5,54,-39,-206,-38,-53,125,-191,87,-177,-61,68,-123,-107,-94,-68,-195,-263,-13,-146,-25,45,-179,142,-92,115,-52,-62,83,-100,44,64,47,-173,181,-129,-143,78,-134,-116,-101,-163,20,-171,-6,79,-46,174,-87,-56,30,-184,66,143,89,-69,32,-79,-129,8,5,-40,43,-89,73,146,80,-131,-9
,-117,19,-7,-112,-419,126,-444,-60,-217,-160,760,-194,261,-321,468,-637,-80,-85,215,72,136,-304,-11,-71,198,-210,-143,-51,256,364,-516,-16,138,-826,-9,-450,-66,383,-275,366,145,-124,165,-148,-191,5,-48,514,515,673,859,567,-622,-456,190,-491,193,-157,-54,507,125,-62,-74,352,70,-311,-760,-82,-336,236,824,-303,590,-90,368,454,-505,-447,50,-402,-8,328,304,-708,-195,93,218,-234,-259,744,190,170,-234,-284,343,409,-667,-435,694,-609,161,-210,14,274,-157,268,-691,350,-70,774,-216,-412,-201,-465,111,-372,-557,-197,309,334,-85,673,70,-469,-394,-27,-46,40
,16,135,98,261,-206,-114,191,224,216,-180,-346,117,-373,76,-461,350,79,363,13,70,143,292,41,364,-14,-30,142,73,92,-8,26,-66,207,240,82,-443,45,-423,59,35,-68,-349,-281,143,-95,185,169,-195,-601,-703,-694,-170,-574,-87,-41,95,255,-26,181,-204,31,328,-56,150,80,-44,153,-57,395,22,-473,230,-590,-432,-58,-352,239,-85,-53,7,-81,201,-256,-32,-103,169,-364,-602,213,-621,-11,-59,-35,220,-26,119,363,272,-676,-41,-60,315,125,143,17,-148,322,-285,206,-644,213,-607,220,308,-109,38,182,64,2,-53,-185,-261,66,262,72,89,-35,-259
,-133,-147,148,41,-202,-83,-98,105,186,131,-160,-139,-10,179,-46,148,-183,-33,172,17,20,-74,171,13,-76,158,-23,-86,-50,-221,154,-15,-206,82,-57,-139,130,67,-81,-52,111,-5,-115,-3,80,-39,140,128,-104,155,-98,9,-88,74,96,-135,-56,103,135,97,20,-216,-49,117,25,-71,-121,-156,-31,-110,74,98,-206,-125,-3,-141,-87,143,-72,-76,125,-220,-202,119,41,-1,30,-31,50,-46,114,44,-131,63,-82,82,-158,162,-192,-159,-218,15,91,40,8,-145,-202,-102,116,53,-190,-183,-172,177,-35,-45,-112,-173,-137,8,-120,-25,-198,-13,5,15,-143,179
,198,22,-55,-25,-229,179,103,81,220,-25,-569,-66,-303,44,-609,-9,186,124,45,215,-117,283,100,119,219,67,-45,-90,8,39,32,11,167,89,14,-318,39,-264,289,-181,-251,-368,-458,318,-48,1,33,-100,-712,-512,-701,-464,-571,127,129,87,23,250,267,51,-165,72,169,-81,74,-268,74,88,126,180,-310,143,-432,-283,-1,-457,129,-151,-121,131,-86,38,-498,52,89,216,-83,-494,51,-545,207,-162,293,290,-310,-171,183,67,-591,-7,10,278,173,42,-157,103,376,-608,79,-837,206,-482,97,42,211,183,38,178,113,5,-131,-326,185,156,-4,120,202,-256
,7,-19,-218,-212,130,79,-35,-13,-421,-38,559,-253,501,13,636,-307,80,-147,91,117,-63,-13,-112,125,12,-43,-3,-93,339,-31,-198,82,240,-401,69,164,-110,470,115,34,329,292,375,-420,-264,96,210,326,576,569,901,201,320,-193,237,-201,66,14,-122,334,-138,-363,88,280,186,-103,-200,-83,-9,217,523,11,641,337,-49,174,-88,-45,-188,-176,-244,132,363,-312,12,196,301,175,-89,652,5,-73,-306,-466,187,-101,-394,-71,756,-132,-175,-145,208,80,-203,242,-524,384,-165,958,-17,-219,-245,-331,92,-469,-330,-118,84,286,51,422,-143,-254,-365,69,54,76
,-38,108,-75,69,-182,-5,18,-214,-199,24,135,98,-212,-40,-110,-151,127,-112,31,-196,-212,59,126,-115,-75,-122,-83,-31,-72,80,-149,6,39,59,-64,106,132,64,131,-15,146,164,174,86,11,80,51,-128,-133,-48,-72,18,-87,-82,-216,-21,103,-134,-173,-215,-223,132,-192,-94,43,-67,45,125,-110,171,-107,-116,71,-121,35,-73,-168,180,114,-184,-97,100,135,-43,113,65,55,-145,-31,-145,-122,194,105,-42,-109,-210,-183,-130,-144,20,112,-171,-61,158,-163,155,-142,147,-93,-79,-43,-60,128,61,49,83,-46,-153,-17,-118,35,6,68,-33,-68,123,-121,40
,51,22,-127,-52,-42,-154,-121,35,-142,44,135,64,-191,19,-96,-4,104,124,61,-14,152,166,-86,20,132,-133,123,-169,138,-196,-188,159,-44,-10,42,-63,-167,-118,96,-27,-58,168,82,118,178,-53,-128,-179,-106,-85,9,200,101,172,-188,123,54,79,-137,156,-35,142,-138,12,198,182,-48,-182,-47,-89,-120,-147,-10,30,-1,-35,-144,144,136,-170,179,-181,36,44,17,11,-57,-178,29,176,0,-53,-164,-171,6,-192,-45,-38,-42,-187,181,-203,202,-91,149,-176,-138,57,69,132,-34,105,-177,-193,-138,-90,63,-164,115,158,-199,-143,-144,-192,-42,136,-20,-200
,133,-60,-6,160,-597,139,265,225,72,98,-240,32,-175,228,-430,368,179,428,195,40,53,323,22,283,253,245,-71,13,254,-74,-119,168,269,204,98,-450,-81,-300,-4,-236,-71,-461,-483,158,6,50,93,-229,-459,-625,-699,-258,-395,38,206,129,256,41,-25,-201,-111,327,261,65,-27,-198,77,171,315,-48,-478,-67,-353,-353,-77,-456,140,-168,-168,130,166,35,-433,-81,-127,155,-180,-391,132,-458,77,74,19,254,-188,19,235,147,-745,181,184,65,228,275,199,-14,220,-600,12,-747,124,-700,-110,301,-91,184,310,169,141,128,60,-174,248,273,-131,166,61,-245
,-64,-81,-45,60,10,-83,161,-40,-36,18,111,37,-134,-201,-114,181,-196,113,-72,-149,153,-161,-93,-183,-107,-222,43,146,11,-184,181,-135,128,106,-199,27,17,187,-134,-161,139,134,172,188,86,13,-42,-167,145,59,-78,130,-98,-178,-9,153,74,-97,-60,-213,-8,168,-30,-120,-188,-36,24,-44,-108,54,-60,-55,-159,-27,19,58,-81,170,-69,-41,-79,-59,168,-136,-193,-67,25,-99,-122,119,1,180,160,165,-211,-43,-223,-101,-104,58,17,-5,-219,-7,-146,-21,-128,51,-27,-151,185,21,163,-154,53,-164,-209,78,127,-95,55,-38,59,77,29,-155,-58,145
,238,13,-128,182,-543,-77,329,-112,263,89,-343,137,-459,227,-460,111,-152,82,163,-29,231,303,109,35,149,205,-133,-22,-97,87,-8,-66,124,-70,-31,-405,152,-363,147,-256,-127,-341,-306,391,-29,114,38,-284,-595,-421,-767,-354,-363,-136,115,109,-34,242,242,-173,-88,16,14,56,-140,-357,121,152,329,133,-375,128,-264,-183,208,-110,145,115,62,256,53,176,-365,202,22,-137,-176,-411,236,-448,-81,-137,-45,106,-119,-104,33,373,-701,191,104,91,272,355,190,189,31,-371,40,-479,115,-736,-100,295,94,202,104,-46,192,182,138,-212,230,100,20,79,52,-283
,156,7,47,221,-305,190,139,239,122,118,-311,130,-269,313,-456,208,-54,207,16,175,44,462,12,37,52,228,129,28,-134,-74,-158,218,387,283,-7,-431,-131,-168,171,-166,-58,-498,-545,397,-187,131,-221,-329,-691,-738,-863,-337,-556,-126,164,180,-113,123,303,-299,48,339,154,247,-27,-166,325,55,122,-3,-288,99,-338,-347,63,-352,354,92,253,-72,-52,155,-539,230,-8,131,-91,-276,155,-629,-26,165,286,143,-217,179,168,168,-646,106,-77,237,269,221,-159,187,451,-696,123,-816,327,-618,135,257,192,198,369,-34,-167,-36,-48,-223,183,132,-133,-23,-185,-219
,20,-31,59,199,-517,170,404,29,120,110,-474,11,-138,163,-429,286,192,354,17,1,164,404,255,392,219,230,-91,181,84,215,97,29,235,198,-51,-252,102,-243,38,30,-196,-374,-241,390,143,4,-216,91,-499,-488,-712,-289,-610,156,-135,-66,174,16,303,-262,93,-25,-2,-37,196,-63,368,206,95,69,-437,113,-578,-261,138,-351,369,159,159,33,126,144,-117,122,132,234,-365,-551,97,-509,-144,65,148,96,52,71,171,334,-361,-91,203,237,273,84,-28,118,298,-355,175,-826,193,-687,137,-9,147,199,21,210,-34,189,92,-246,14,109,126,2,-121,-366
,-41,89,-162,148,-570,111,343,199,215,72,-201,228,-294,-102,-341,76,-73,449,127,184,236,399,106,338,66,19,-38,-26,-20,-8,-140,-50,352,-32,226,-183,250,-392,141,26,-295,-77,-312,54,-137,-128,22,-51,-696,-383,-463,-481,-659,61,185,-30,-21,125,198,-315,-208,327,77,140,-4,-65,320,139,249,240,-168,216,-369,-384,154,-413,318,157,-98,240,46,-80,-344,-10,-98,-143,-391,-409,-76,-328,-119,-55,137,209,-175,204,196,346,-739,286,164,289,-96,210,153,133,31,-603,-60,-635,82,-647,-70,169,-119,80,219,153,65,-154,106,-481,218,127,-116,-87,70,-39
,-96,129,-83,-207,35,136,-125,9,-89,-79,39,-48,77,78,53,34,176,194,-73,171,184,-71,-82,93,4,-128,-169,109,-209,-40,-218,-103,-58,-102,139,125,32,103,107,65,20,119,138,-161,-207,-80,177,-190,-38,39,74,13,88,-193,-46,34,-66,-104,41,156,-188,-169,26,-178,137,-5,-187,176,-4,-122,64,136,122,-51,-131,122,-60,113,-176,-57,24,21,2,78,175,-225,60,-59,70,-145,-36,-31,-119,-178,-131,-177,-94,69,122,91,143,54,-193,135,98,-59,34,-6,168,-191,-51,144,-104,-139,-165,156,-38,-8,4,135,99,136,-106,85,-152,-42,85,-33
,31,-211,-180,246,-612,55,343,73,198,126,-301,129,-449,61,-443,186,34,90,-84,-134,134,174,26,179,-87,290,-35,20,243,-66,2,-92,420,73,117,-583,180,-267,245,-120,-157,-482,-398,499,-226,28,-19,-342,-660,-635,-921,-267,-711,75,140,-135,26,22,81,-260,-206,244,197,137,166,-220,203,-43,116,103,-586,187,-447,-528,48,-147,290,-97,-63,273,184,171,-365,116,-166,126,-244,-627,-171,-533,132,120,160,298,-372,-134,236,212,-775,253,64,312,131,407,136,-74,354,-381,81,-940,141,-614,77,127,186,153,358,-168,-154,-102,-76,-540,21,217,-146,-2,45,-183
};

long bias_2_dev1[1*16] = {
-19394,44078,116248,-21666,99571,-12768,-19885,0,98980,-17697,91875,121725,88310,99200,-20698,126100
};

long weight_3_T_dev1[1*16] = {
188,1017,-523,60,-595,1264,62,-152,-807,440,-492,-281,-542,-410,410,-423
};

long bias_3_dev1[1*1] = {
-81240408
};

#endif
