
/* Trace */

/**
 *  updated on 02/03/2025 06:11:38
 */

#ifndef __W_DEV1_H
#define __W_DEV1_H

char name_dev1[] = "Trace/dev1";

long weight_0_T_dev1[1*12] = {
0,1024,1,1,1,1,18,19,18,4,4,4
};

long weight_1_T_dev1[128*12] = {
102,-199,21,-34,-58,-15,471,397,352,11,-116,56
,224,3,19,-96,247,169,-360,-280,-208,93,90,-24
,73,79,71,-2,-97,33,-529,-320,-219,309,-37,157
,-59,59,173,142,176,105,-208,4,-66,-210,-27,-213
,-90,-69,-50,134,-6,-109,454,358,513,-226,54,73
,-187,-79,107,-13,109,53,79,403,92,-204,-3,117
,135,-148,-4,-17,-57,0,-142,-510,-420,119,244,-50
,29,29,156,-120,11,-111,466,395,93,26,41,-156
,32,-109,-64,-17,133,34,452,358,496,-31,-66,-33
,-36,182,14,-2,-125,127,-105,-12,15,-148,79,-143
,218,-43,-61,-102,81,-51,-424,-344,-38,310,50,-38
,216,44,-10,-157,246,-60,127,71,194,-169,33,135
,-26,5,153,14,165,-66,-190,-292,-207,63,89,179
,81,-185,-151,-90,-189,-124,46,-50,23,-203,-168,-108
,-76,34,39,205,147,-69,-433,-195,-148,185,-94,238
,-63,-134,208,128,176,203,216,529,260,-230,-203,204
,-50,-2,162,31,-48,61,-390,-118,-262,71,234,-4
,-74,-21,-4,84,191,-58,73,264,7,144,44,-62
,183,15,273,134,-17,54,-450,-271,-402,132,-18,76
,171,140,0,-81,218,170,-439,-474,-90,-9,-63,281
,88,51,-5,-74,88,-56,-304,-357,-395,22,159,154
,57,89,41,150,21,-123,-180,96,-177,109,63,167
,173,164,254,-106,-265,290,-72,-64,42,-43,-64,6
,201,42,-29,179,92,-107,-470,-156,-211,269,121,232
,126,-119,50,153,-23,101,73,-58,23,44,-124,-41
,-24,63,-84,13,41,90,-179,-284,-155,-3,194,209
,169,134,171,11,108,91,-346,-56,-237,170,250,-61
,-167,161,2,-69,-125,-152,-10,-70,-81,24,-177,73
,203,47,-27,-53,-12,-10,-432,-321,-413,319,-43,80
,-89,-111,-32,-15,175,22,-128,-291,-268,319,51,-123
,-79,-83,-28,76,42,-120,-358,-305,-103,222,14,113
,-47,51,231,77,-138,218,24,74,-174,94,189,181
,-96,-160,23,150,139,220,-411,-237,-329,34,262,175
,-141,110,110,-10,217,94,-338,-480,-307,172,-90,190
,-49,25,-107,-113,161,219,-408,-344,-316,250,80,4
,65,-124,-27,55,-73,-111,-125,25,44,170,110,-71
,98,-165,124,145,-98,-136,-190,-127,6,-188,93,-116
,135,-117,-41,-94,-73,23,6,-243,-18,40,220,248
,-198,-180,-177,22,-108,-57,115,-16,-57,-103,-69,-136
,65,-165,-110,174,101,43,-182,-218,-239,228,-81,14
,-102,-62,-84,-155,-58,98,-264,-145,-218,256,80,151
,-128,164,10,-190,137,-146,-35,17,-1,-54,34,-105
,137,191,-76,-36,248,-14,-286,-128,-7,121,68,166
,184,-141,160,159,98,34,-304,-102,35,247,142,-54
,95,-147,-114,15,124,9,-313,-281,-255,236,66,82
,185,155,57,-18,252,15,173,-41,-236,98,238,254
,-53,27,28,-81,-116,66,-257,-144,-126,231,216,177
,-140,-5,-82,-61,32,40,416,455,438,12,-226,-58
,114,110,33,-108,24,137,-379,-481,-416,99,181,55
,61,11,228,185,65,54,-376,-136,-134,-41,168,109
,7,-20,-133,-90,-26,-166,198,178,-200,145,-75,-161
,73,68,103,-93,-177,-15,-394,-238,-345,191,193,58
,132,76,-83,98,-23,-24,400,452,242,165,-261,-66
,-202,175,-138,91,-39,139,370,446,576,34,-190,-163
,-277,-9,6,-129,-96,-40,623,489,220,22,-139,24
,87,72,16,123,17,-220,-433,-384,-174,267,-12,65
,9,-97,248,15,-132,65,-88,-243,-10,177,216,-98
,-206,-164,-30,-29,30,16,440,198,276,-50,-236,106
,-224,-178,29,-40,-184,57,595,227,474,-239,42,-114
,86,-94,190,130,-101,39,-108,-382,-285,283,100,-111
,-80,-3,-35,28,96,162,-417,9,-56,55,182,-14
,132,-54,235,-106,-78,-143,486,380,433,-18,57,-216
,54,107,141,-139,10,43,-258,-378,-140,176,101,148
,204,-185,-37,-107,-107,122,-190,-164,-192,299,-93,57
,-119,62,-264,-151,-104,52,299,526,324,156,-207,-204
,-98,163,-43,-114,-139,-166,-477,-132,-463,302,163,-91
,80,53,184,117,224,-10,-270,-197,-293,230,190,124
,-102,118,50,-95,18,77,-414,-255,-348,247,5,159
,184,82,-155,-60,10,-94,123,191,-10,176,-93,-24
,77,197,73,144,22,-136,53,31,-39,-58,5,-173
,-205,51,-30,217,-84,102,351,302,336,-100,-191,169
,131,-116,-83,9,198,179,-519,-526,-114,113,231,41
,108,-152,-170,-25,-91,63,166,-85,-139,53,-168,80
,-34,23,79,203,-134,220,34,43,-174,-97,90,157
,-206,148,156,168,30,-107,408,510,126,-170,-146,87
,50,-33,190,-17,8,-102,-182,-434,-194,253,173,204
,141,133,212,-175,36,-171,97,208,168,-6,85,-106
,76,-183,-125,151,184,192,-407,-255,0,112,210,-78
,-19,84,25,-105,112,-136,-113,-4,-228,-13,121,-116
,73,20,12,-147,-111,1,-9,34,77,-116,-151,-100
,177,-38,-102,-64,-92,28,-95,48,46,-50,74,-143
,215,-112,185,166,71,-31,-331,-127,-366,-52,88,185
,-176,99,-164,98,88,15,95,87,155,189,98,-161
,-50,-52,-151,140,-13,157,-407,-242,-334,267,198,78
,84,-196,258,240,222,-21,-298,-344,-245,213,101,-71
,86,205,-81,195,112,-96,256,347,485,-14,-135,11
,-152,-201,87,-59,-190,19,-32,-93,-233,87,8,-42
,111,20,-80,-39,-131,26,110,13,-215,82,17,-67
,-125,-174,9,176,-197,144,-150,-7,135,-180,-200,-31
,69,-72,49,-12,-60,-21,61,159,-73,160,-144,157
,37,80,18,-36,24,-39,-439,-64,-214,185,269,61
,216,-15,-61,-54,-134,101,1,25,-160,-191,89,-141
,6,-199,-39,-158,207,-135,15,74,-195,6,-10,-167
,195,-170,116,-22,92,49,-94,-83,-31,-211,126,-101
,130,-152,-58,128,-149,182,-330,-16,-331,235,36,153
,-87,63,-140,-150,136,92,504,579,475,-107,-128,83
,173,46,-19,241,11,-130,-420,-181,-28,241,106,-58
,-94,-180,144,-7,83,158,-161,-140,-23,275,54,9
,-161,-195,-161,70,-104,-143,44,47,6,71,-121,-103
,164,54,3,117,237,-135,-13,-114,-234,94,232,196
,-53,-91,143,174,-33,192,-524,-306,-152,2,103,203
,8,-137,-32,36,101,91,-448,-479,-239,33,149,92
,171,108,-56,-101,-12,122,455,330,337,-277,178,-81
,122,-34,131,78,-122,53,377,412,208,23,-221,103
,-91,-123,274,152,184,-88,-176,-33,-218,-59,210,-19
,168,39,145,-41,172,-59,-470,-275,-66,180,108,50
,230,161,-135,116,-93,151,-108,-6,-85,-182,-156,66
,-58,153,-129,-25,-93,-25,111,2,25,184,-93,-18
,167,-63,207,236,193,95,-302,-170,10,286,-22,59
,-158,59,-76,23,102,-19,-476,-176,-132,94,142,17
,37,74,19,34,-106,31,-409,-330,-100,-16,138,125
,-42,-63,-109,42,30,84,-370,-236,-279,-3,188,65
,103,-58,-33,191,57,56,-477,-293,-208,299,22,-37
,163,-183,-20,199,-221,115,-172,114,64,-82,-42,-78
,-175,-82,0,-59,-23,-47,517,438,488,-258,188,-248
,115,14,198,-48,179,353,1,-97,-16,82,-148,-80
,-55,-169,76,11,15,110,-477,-384,-450,0,47,275
,-280,-67,-109,94,-149,143,651,478,585,-148,72,-118
,228,-110,-90,224,-119,226,-291,-465,-423,2,179,80
,-9,108,9,34,-38,-101,30,-83,171,-110,-195,-25
,-195,152,-226,-188,-34,97,250,420,370,-81,-41,-40
,78,-154,69,-27,246,38,-5,-33,51,20,281,262
,58,-29,177,-145,203,49,-7,86,-313,182,133,-68
,15,-64,42,-18,-83,-123,-384,-153,-177,154,70,-6
,164,101,-29,-78,69,130,-10,21,155,-236,20,-7
,175,-130,232,107,-43,127,52,9,-93,-101,262,148
,-226,161,-152,-151,0,-79,626,243,326,41,-89,-79
,75,-193,213,156,-65,94,-453,-260,-151,23,46,117
};

long bias_0_dev1[1*12] = {
1073741824,0,214748365,214748365,214748365,214748365,5041041,5041041,5017485,20259280,21474836,20259280
};

long bias_1_dev1[1*128] = {
60,6,-37,-14,117,28,-16,25,170,-19,-13,27,-71,0,-26,127,-74,-6,7,13,-46,-13,2,-31,-28,-32,-22,0,-22,-12,-23,12,-3,-12,-17,-50,-27,23,-26,1,-40,0,19,21,-55,41,-24,93,-15,-11,-2,-68,52,99,153,-39,-16,42,128,-22,3,61,-30,9,117,0,-16,-79,-41,-24,104,-27,-19,9,147,-15,34,9,-40,0,-37,-18,15,-24,-24,152,-34,-33,-21,30,-20,-37,7,-26,5,141,-8,-18,-10,18,-45,-38,51,2,18,-26,-11,-34,10,-38,-31,-34,-16,2,121,42,-16,152,-6,-17,134,16,32,-15,-36,42,135,-7
};

long weight_2_T_dev1[16*128] = {
186,-159,0,44,7,119,43,-56,303,-66,62,-25,-173,13,124,92,-20,117,-5,-199,62,162,-79,8,-81,-39,-84,62,-233,-299,104,73,159,-7,-219,-203,-109,-110,-134,-137,9,-63,41,67,109,-5,31,319,50,64,123,71,22,270,70,-249,-39,395,362,-165,80,103,-41,-94,283,-326,-41,-103,-170,37,303,-151,188,14,261,163,139,-162,-153,67,46,-146,168,-247,-205,383,-59,-11,105,-60,-145,117,-69,-154,58,50,-197,-38,-98,-30,-176,26,143,-151,-30,112,-43,79,61,-94,-198,-12,-222,-120,616,-188,-122,331,-155,-31,123,103,-32,80,17,-113,80,25
,10,50,300,61,-142,-59,284,-65,-195,176,214,61,126,132,159,-275,261,250,144,289,122,279,-107,41,129,219,87,58,89,170,-19,151,135,130,-32,83,228,13,64,-143,-90,181,220,-59,94,-18,143,-530,133,282,-123,192,-186,-455,-84,291,178,-536,-151,84,183,-215,138,187,-245,136,281,-46,156,66,-177,312,-164,-26,-198,24,42,285,-16,56,-67,235,98,124,89,-260,-138,191,-22,149,242,19,99,-94,25,-373,-75,51,-17,-1,59,308,-166,15,244,21,37,-230,214,31,24,2,297,-36,-617,225,341,-485,316,-6,-388,223,165,-7,-46,181,-316,237
,-78,236,209,26,-339,-176,347,-244,-268,-66,218,86,-74,156,182,-382,38,-33,409,294,113,180,226,242,-104,110,248,-75,170,231,276,171,264,-15,263,-140,-166,206,137,-49,-107,75,68,223,284,227,82,-560,371,191,-181,156,-258,-106,-262,165,245,-381,-504,101,83,-356,-7,202,-504,50,269,218,-119,-179,-132,54,-99,149,-332,31,11,144,-29,-127,-72,97,141,163,-3,-381,-27,-74,100,202,121,183,-186,8,210,-111,232,173,-89,56,182,99,-220,-84,41,93,243,-158,277,-28,269,-78,79,217,-558,39,214,-276,275,45,-410,178,51,-2,-155,189,-377,287
,128,33,-121,-168,416,315,-306,366,183,65,-309,300,-170,-138,-215,196,-179,71,-197,-149,-216,-129,-69,-227,-67,-11,-107,173,-314,-38,-94,15,-10,-121,-60,1,-6,54,-179,-42,-78,-40,160,161,-305,184,33,227,-179,145,-98,-130,310,237,252,-303,-81,542,129,-220,20,318,78,10,264,-257,-151,-203,67,-192,283,-278,-87,-104,173,61,142,12,45,-179,-186,-110,33,-138,-121,303,2,174,98,217,-226,160,9,-17,74,319,-32,-119,172,36,-77,-93,218,171,159,-169,-146,-67,31,-433,-45,-350,-4,-153,666,20,-215,342,0,-178,68,88,189,-329,-69,216,375,-258
,-224,35,296,-58,-374,-85,368,-103,-137,128,163,152,138,54,267,-308,-22,279,112,81,217,-31,80,194,179,-76,260,24,344,216,216,164,139,339,252,-10,-122,-43,77,81,259,36,-17,-7,10,227,-73,-481,324,205,-166,241,-428,-268,-464,63,78,-364,-280,-36,296,-246,7,-31,-237,131,41,270,-41,-46,-354,237,-74,106,-387,6,-127,143,77,-175,-153,28,105,117,186,-225,-54,-127,105,110,42,37,149,-22,33,-373,-63,272,-169,222,-21,529,-420,-164,30,165,85,71,169,81,-63,140,142,-76,-564,222,265,-199,269,152,-167,95,-80,301,184,267,-176,12
,72,-57,-8,24,219,36,-264,318,308,-68,-165,13,149,-94,-232,423,-268,-190,11,-38,-186,109,101,-9,185,-222,120,164,-126,145,-248,81,-187,124,-110,64,-156,150,16,-126,26,-72,139,-52,65,-119,-123,341,-201,154,123,-84,143,287,381,-205,106,362,449,-37,-148,27,28,88,338,4,-62,-46,-1,144,113,-159,-156,-8,58,-223,223,140,-34,30,-124,19,60,17,-253,298,-48,157,131,-168,56,-130,37,57,158,196,26,-184,-87,106,-175,9,79,55,134,-152,-81,125,178,-126,-90,36,-89,-107,457,-151,-226,164,-69,-4,116,-129,27,-64,83,-158,242,-114
,-75,310,194,188,-123,99,-21,29,-13,-5,63,-210,167,-169,167,-402,85,245,302,97,242,-7,161,-4,81,-54,273,-202,185,291,-47,120,67,352,327,255,-147,34,45,153,244,155,254,276,-68,17,277,-451,409,254,-69,89,-372,-261,-375,16,77,-218,-440,81,4,-269,37,179,-298,152,-22,52,184,-96,-22,74,59,162,-353,256,-48,253,-127,176,-159,38,31,-90,229,-307,-173,-130,24,-89,83,-15,-43,10,231,-444,66,122,51,128,-70,466,-398,-121,78,114,-68,-144,86,326,-110,231,225,200,-507,198,235,-279,343,-34,-439,104,-20,44,-90,146,-384,-33
,-144,94,-95,177,148,-2,-162,152,-50,-101,10,-76,-181,144,-165,-13,-170,129,-176,-70,-141,169,-143,-168,63,-139,162,21,157,36,-197,15,159,11,129,-216,-106,-183,-22,-134,44,2,161,-99,161,11,-204,-172,-150,-94,0,-72,132,-173,-58,165,97,-133,-136,-66,138,-188,121,-83,-43,-29,-50,-168,-22,129,-88,-196,133,-2,23,164,99,-1,52,32,-83,-34,125,-167,173,100,-193,-123,-121,-207,116,-25,-91,85,-15,-141,94,116,-167,-96,3,106,31,-52,-31,44,-104,76,115,170,175,-122,142,-67,-15,152,-164,153,-64,-144,167,-142,15,19,-90,-143,-87,-165
,-322,125,96,-87,-381,-263,360,-10,-147,98,296,95,265,-137,-93,-234,48,-97,380,270,225,124,64,-5,22,107,159,39,206,232,242,61,151,289,306,-45,-72,212,85,-74,-63,-122,185,246,174,-2,264,-503,444,107,-176,112,-94,-375,-285,179,249,-179,-467,77,131,-218,29,282,-316,394,150,49,-154,-139,-152,216,71,-185,-445,288,-164,291,-136,-128,139,186,-86,-53,301,-199,-73,15,8,-98,-41,76,-4,-99,306,-393,33,12,-36,54,149,324,-294,-216,138,237,102,141,265,69,252,-3,286,134,-692,59,110,-492,51,78,-307,188,302,311,-8,221,-298,-27
,315,-44,-282,-40,387,170,-321,209,378,59,-264,-7,113,10,-211,420,-27,36,-274,-17,-57,147,-65,-51,128,-211,-222,-53,-321,-102,-276,160,98,-262,-280,-124,167,42,-13,-167,-225,145,-44,33,27,186,-160,278,16,-77,186,-82,262,270,160,-258,-102,360,519,39,79,438,9,-128,392,-383,-142,-61,94,15,287,24,214,225,298,-87,216,54,-170,152,-94,-120,117,-25,-128,317,91,71,-183,-42,-31,56,82,-8,31,467,-84,-142,69,2,-82,-164,385,257,-5,-147,-97,9,-135,4,64,-117,-267,-21,554,-342,-71,252,-216,-167,370,198,97,-69,51,147,176,-68
,-152,128,-59,-108,-318,31,-6,-204,-250,149,278,-208,147,169,261,-400,167,-44,319,106,276,-69,56,-27,-120,141,-69,43,200,4,237,100,198,345,220,-139,103,17,81,-174,256,-105,185,294,113,167,30,-546,302,-65,154,-4,-274,-419,-371,147,-21,-423,-503,273,284,-109,200,188,-486,328,121,-70,-91,169,-374,172,-184,-42,-222,173,34,276,-141,-45,189,235,-122,267,282,30,37,42,44,163,279,97,-80,-78,134,-377,156,226,184,262,-54,365,-353,-197,233,239,-99,89,119,183,67,119,122,-117,-498,-24,218,-276,143,71,-308,160,283,30,-130,-81,-415,256
,-110,276,5,84,-322,-251,149,1,-232,170,299,-76,48,153,3,-218,43,-79,104,239,123,-76,-107,175,-17,75,46,-27,278,301,-57,70,139,335,179,100,158,-121,-42,-40,277,124,270,252,43,69,120,-457,212,-9,-69,58,-135,-170,-238,254,170,-447,-379,158,40,-238,330,-97,-310,243,102,166,-110,-81,-133,243,-185,97,-207,68,205,-20,235,-5,-90,71,135,47,190,-87,-46,122,-220,-100,-46,134,-199,109,174,-336,262,-41,38,133,182,417,-296,-281,54,200,216,-227,176,107,215,346,59,-42,-664,55,80,-216,342,-150,-456,187,205,339,-102,-18,-218,17
,-44,-180,126,-14,-45,-144,169,34,-32,22,63,-149,-15,60,8,59,-46,-142,170,-120,137,8,144,-130,-23,61,-177,-26,130,-96,-198,-89,151,-182,180,54,-103,-155,-123,-10,-95,181,-71,183,-39,55,-58,67,-168,147,151,103,107,51,-75,-31,-7,-126,-178,-156,27,-95,-169,-62,-141,-147,82,-123,52,-78,-111,-70,150,-64,45,-79,-35,-214,149,-167,-154,-80,-36,154,187,-147,-9,28,154,-186,158,146,76,-142,156,-73,2,-121,129,-159,-84,26,-187,38,-25,142,13,-178,88,-196,72,104,-136,-7,174,-142,-59,-4,78,124,-5,107,0,-42,68,-3,124,100
,87,167,-90,44,120,45,156,167,-89,-59,31,49,-205,-200,7,-63,174,120,-153,-17,93,-172,316,25,391,-239,163,174,155,-160,107,95,5,-122,-6,138,95,160,-196,-152,57,-38,-30,-179,-12,-4,-203,32,-58,67,58,-146,-142,-28,-239,16,-37,-151,49,43,-236,128,-91,46,-161,68,-135,-285,-99,61,-217,-136,75,28,8,-121,-68,-82,85,181,-79,-83,-210,-128,-139,81,179,-3,-107,81,83,-105,49,131,152,49,24,-38,-96,124,-127,-140,127,-194,-221,-42,250,105,-145,-57,-54,-3,136,37,-62,-133,91,-181,-81,27,-112,-65,-206,144,204,66,-49,-184
,-144,243,258,103,-422,-109,192,-183,-321,149,-58,175,26,95,275,-373,22,196,192,337,98,264,134,293,167,197,246,63,376,130,196,-60,-24,320,305,-48,111,205,24,20,165,101,235,110,-50,151,246,-424,320,103,-22,257,-279,-413,-283,187,-12,-404,-391,109,156,-263,260,37,-392,306,32,174,63,49,-175,251,-5,-102,-143,211,37,257,-31,177,-171,75,224,121,186,-364,-21,-162,107,-73,265,32,-22,-139,54,-289,50,-66,-23,14,241,489,-180,-77,-99,119,176,170,240,247,-72,223,100,64,-721,-118,78,-415,-34,162,-276,217,142,343,178,21,-63,103
,166,-226,80,-191,443,313,-364,-5,359,-49,-47,157,-67,-120,-182,469,-305,154,-329,134,-159,108,186,-201,-29,-88,17,-85,-106,-240,-94,106,-245,104,-324,-170,-184,102,75,-52,-68,-147,32,-137,25,151,-137,244,-208,-207,-10,-126,377,172,486,-41,-163,164,139,-283,-19,431,-22,20,484,-456,121,-140,-126,7,412,-253,23,-40,535,-158,25,-141,-178,155,6,-182,-181,-113,-47,445,120,-222,62,152,34,-60,-131,-126,50,467,-85,50,-51,140,-98,-241,108,301,-54,-223,-282,-81,122,-113,-256,11,-380,-10,393,30,-243,478,-239,-170,235,-2,-86,-238,-110,110,182,71
};

long bias_2_dev1[1*16] = {
9009,6261,16532,85880,13620,29435,16420,-14283,10285,39138,17542,12558,-11040,-21236,9120,37696
};

long weight_3_T_dev1[1*16] = {
545,-209,-636,1074,-267,535,-324,-127,-281,985,-508,-363,331,-253,-229,663
};

long bias_3_dev1[1*1] = {
-17290408
};

#endif
