
/* Trace */

/**
 *  updated on 02/03/2025 06:11:37
 */

#ifndef __W_DEV0_H
#define __W_DEV0_H

char name_dev0[] = "Trace/dev0";

long weight_0_T_dev0[1*12] = {
0,512,1,1,1,1,17,17,17,0,0,0
};

long weight_1_T_dev0[128*12] = {
13,92,193,-230,96,-14,-5989,-3703,118,-256,41,132
,-331,185,-410,-386,-532,-8,-629,964,406,479,-4118,202
,141,148,246,-97,-234,-103,-6122,-724,487,-146,139,34
,-17,-183,-100,-61,87,-121,1047,-945,-1044,-48,-59,-50
,-22,96,-130,106,-19,-106,1959,4696,1047,174,-8270,-41
,-178,147,-442,-133,-310,-80,-801,973,968,482,-4240,-2791
,57,87,-101,301,59,66,4364,1584,-1245,-3079,-1971,-906
,-200,-47,-291,-149,-68,-6,33,-29,-60,-375,-16,109
,13,-198,-43,99,-135,-45,3112,1832,2131,-500,-497,-268
,0,15,104,17,-107,11,2259,61,-425,-42,-169,-109
,-185,-107,71,-14,75,-236,-240,-101,143,-129,-60,-254
,12,-406,-396,-8,188,256,-198,665,476,780,176,160
,46,3,-313,-943,-150,17,-507,-809,-1010,-1297,64,-45
,162,256,257,-57,-75,-1,-3222,-2127,-854,74,-197,-57
,234,124,-153,-717,-919,-645,1,-473,-842,234,68,-15
,-149,138,-836,-269,-220,493,-458,46,94,-447,-230,270
,-101,-95,-317,-65,-210,-136,-267,-240,-329,-30,159,90
,-40,-23,13,-4,-85,44,1956,2487,398,-5555,-5058,-51
,227,132,-475,-502,-640,-204,-56,-5,-1090,325,216,125
,-206,-193,-101,141,-91,-104,-178,-202,-86,106,-61,-166
,-130,8,14,8,-216,-45,-153,-56,-88,-48,-76,-79
,-116,-673,-214,-116,-101,-94,1656,250,-329,201,80,79
,-55,-906,103,75,-88,80,2765,1876,3583,190,204,-4744
,46,198,337,63,8,-329,2777,1644,1762,-29,-72,-201
,-12,-137,-319,-317,36,87,436,1140,1086,553,47,-26
,-25,-13,17,-2,-13,-20,5264,1034,2123,-6659,-31,-2942
,223,-9,111,-381,-520,-1139,-2328,-1440,-1177,-60,-71,-79
,17,-671,-364,-452,-600,-711,1356,789,827,-156,226,-165
,-2,-915,-981,445,441,58,1068,423,-75,-48,-326,-25
,61,137,87,-241,-64,-79,-5663,-1575,-746,-225,-13,115
,-43,-123,44,-22,-260,-170,1173,502,-203,-198,-132,-358
,81,63,-790,-701,-120,-87,-4654,-3690,-2112,92,20,57
,-202,-116,35,-259,64,-271,111,51,25,-304,-337,-67
,169,203,99,-228,139,71,-1980,-1630,-1610,89,-32,-28
,39,148,-170,127,-221,103,-3978,-2365,-893,-432,-151,-89
,45,118,145,15,-78,59,-3504,-4717,-1646,108,-171,-232
,15,-65,-17,43,60,71,1934,5331,630,202,-6946,187
,-84,-156,215,-220,-27,143,-4501,-2993,-786,-190,14,207
,39,59,265,-81,92,-247,-3619,-6698,-4985,185,-186,-24
,-399,-56,-598,-383,-144,125,61,163,230,-1499,267,396
,-32,-532,-173,78,196,-79,1924,956,2651,259,211,-3739
,-139,294,565,459,219,81,-1064,-834,758,355,265,226
,-224,-93,38,-317,156,196,280,-78,283,-664,326,-948
,-69,-64,-98,129,-168,54,2536,499,-575,-1605,-1081,-651
,-53,28,-305,-158,-144,80,-3019,-1455,-602,-84,71,-412
,79,178,-108,-21,47,-160,-4025,-2790,-604,-75,-38,-5
,-220,73,616,294,76,-58,-1899,-1205,1384,213,234,180
,-158,-152,49,-208,-220,128,-79,-120,24,26,48,-129
,6,185,17,-16,-184,-132,-2833,-2036,-1569,140,-294,-182
,64,-1,67,-114,19,-98,3513,997,-131,-2722,-909,-843
,12,-289,-1254,-113,101,-13,1631,1388,1061,-538,-649,-1076
,-101,198,464,306,62,192,-1615,-631,2222,58,175,38
,-43,-288,40,-13,-17,-39,1152,317,-769,-80,-164,-11
,72,80,106,-20,-94,-67,-3275,-2250,-1007,56,-215,-4
,78,150,24,-86,-150,134,-7666,-2250,-87,-258,125,108
,73,168,66,-295,-6,-27,-3911,-2136,-1858,-812,-9,-12
,27,-4701,-7,5,13,0,6909,475,0,-3094,-21,91
,142,159,78,-447,-217,-1017,-3270,-2117,-1770,-122,-42,-35
,73,138,280,165,13,33,-5266,-726,245,-603,172,-412
,-57,34,-906,-247,571,898,86,-104,-430,153,11,-331
,-576,202,-631,27,182,390,-14,120,266,120,391,333
,-32,137,-134,-334,-306,90,-3601,-4253,-2821,246,-58,74
,-102,168,144,95,-251,95,-548,-3598,-1656,384,-133,-77
,192,87,-232,-717,-978,-937,160,246,540,126,198,271
,-213,-6,-166,-371,27,86,918,-1127,-977,398,4,-6
,-99,246,-375,-349,-364,2,-319,643,640,339,-2703,96
,67,196,338,6,-44,28,-4414,-1810,-594,-499,91,-319
,-177,-130,-133,-105,117,-107,-232,-44,164,-146,123,-76
,-79,-148,-487,-63,-328,-89,285,233,520,-645,-91,95
,-31,103,-32,218,91,180,-2893,-5700,-4497,277,-246,-426
,-98,-38,-36,24,-217,-134,-37,-107,-95,-50,0,-77
,-27,-36,15,31,-11,-35,3848,1023,2297,-7619,-6,-5734
,-3,78,-17,-318,-203,-66,-2362,-1824,-1996,-15,23,-46
,-352,211,-332,77,102,-123,1285,-273,-590,464,-119,-422
,-9,51,290,17,-3,-67,2232,2198,1162,-57,-58,-46
,-282,26,-309,-499,-425,-575,-53,132,126,-390,-131,199
,2,11,263,-175,-71,13,-3617,-7266,-4969,236,-234,74
,-28,267,35,-69,-212,-332,-3310,-2014,-1404,-200,0,-4
,34,120,177,-39,-38,-91,3005,2490,2384,-213,-178,-564
,38,62,32,-48,68,-25,4661,1016,2223,-7746,-2,-5447
,37,109,27,-23,-13,53,-5244,-5829,-5621,63,96,15
,76,253,-2,74,34,-132,2470,2296,2456,-176,-197,-354
,-19,-1255,-353,-321,-595,-306,2860,1100,1390,14,274,73
,-308,-171,-160,-173,-38,-146,1276,211,-385,-32,-29,104
,280,202,-548,-590,-599,-432,-75,-727,-1523,72,-205,17
,22,90,-112,-84,-235,-138,-3023,-6392,-4050,322,-134,35
,1,78,11,-38,75,-53,4452,-572,-358,-6872,264,60
,124,207,214,-65,-151,-209,-5436,-1639,-647,-239,100,38
,88,172,-376,-971,-1159,-96,-56,-90,35,20,174,239
,11,-878,22,-269,57,62,3095,1973,3260,222,-33,-3921
,3,218,350,66,-200,-323,2282,1911,986,-27,-167,-1643
,-183,-226,54,-378,-218,-150,-2346,-1782,-1353,268,33,-143
,-128,-44,425,198,147,143,-3927,-3732,-945,-443,-68,376
,-328,77,-325,-21,12,2,1393,290,-1013,376,17,-461
,-264,-6,-677,-405,132,186,138,-182,143,-1704,191,421
,42,264,-387,-639,-928,-1049,13,-677,250,-219,-486,243
,-197,46,-450,-251,-339,-326,-483,-85,136,-472,-259,33
,-108,-254,-344,-409,-277,-480,-1836,-68,-1587,-132,414,-150
,9,-126,26,-149,-43,-74,2644,806,-81,-323,-356,-322
,-34,134,-575,-1020,-21,131,113,406,727,-273,-373,286
,-226,58,-428,-340,9,-50,538,172,528,-2789,373,341
,25,-42,-78,-3,-119,-36,2726,372,-563,-279,-343,-99
,189,1,-13,-290,-618,-727,198,-28,-133,326,144,96
,-336,12,-591,53,121,247,60,-87,-444,43,117,88
,-34,-3258,-157,-65,103,67,3104,1532,3699,262,186,-4833
,202,-6309,-261,-677,-1066,-595,166,-114,18,465,376,283
,-22,65,9,-22,-181,187,7061,454,15,-6373,69,186
,22,-43,-47,-85,-52,-40,3773,1896,-630,-1735,-2020,-90
,9,154,21,-2,43,-115,2382,4484,2365,162,-5963,-4279
,-71,-87,-38,-69,212,147,-84,2747,749,484,-4063,141
,-73,-67,-181,147,-15,-199,-130,-1,-41,44,-19,107
,-69,-134,-212,-217,-333,-231,306,236,580,-31,43,109
,-47,-65,-224,-11,-165,-228,-89,-174,-103,4,-164,-211
,-232,32,-228,-191,-249,-272,1500,-22,-351,-2061,39,103
,-190,-123,-224,-38,-206,-214,-148,-187,-169,-95,67,87
,-143,-143,-66,-228,61,-49,-212,134,-209,-80,25,-141
,-36,62,-66,65,185,-75,2165,4903,557,174,-4871,40
,83,-7819,177,-136,-75,7,3341,3605,1123,-6724,-7374,-28
,-90,11,181,-79,-77,183,-74,4588,852,496,-7616,16
,-52,-93,219,42,194,428,-6623,-1217,272,-558,318,316
,-27,-10,-299,-138,-147,95,-1845,-2033,-2117,93,-149,-103
,15,-711,-90,114,-60,14,2665,286,-483,-96,-127,-141
,0,28,16,-43,66,-26,4348,3300,532,-6590,-3854,-22
,-94,-186,5,149,184,189,-2155,-1783,23,106,107,271
,-482,-16,-1056,-417,224,389,-452,202,416,-88,216,78
,-12,66,-3,-149,157,17,9125,-184,-90,-6521,152,116
,34,99,-305,-556,44,175,-6453,-2442,-2033,-370,268,300
,47,-6,-486,-823,-571,-534,383,429,410,189,269,43
};

long bias_0_dev0[1*12] = {
1073741824,341,8801162,8873899,8801162,8801162,14541,14541,14541,185672,187030,187030
};

long bias_1_dev0[1*128] = {
28,-42,-44,-4,-11,-113,37,-86,-29,-78,-50,-42,171,86,124,39,-68,69,129,-23,-10,-100,-43,-111,14,45,26,-142,-24,-55,-211,69,-135,133,-106,39,-82,35,-4,56,-29,-79,-210,-3,-95,-157,-5,-42,80,-104,17,-60,25,-118,40,-8,-39,34,49,-85,60,-75,-68,8,-65,-133,113,-61,-7,-43,-25,52,-62,132,-72,-128,37,-17,-104,-3,-1,-95,-146,-329,191,-43,-5,-9,139,-62,-105,-32,24,61,-60,59,-89,-93,-37,35,-106,-47,-18,-69,-34,5,-10,-58,-56,-78,-46,-38,-40,-261,-25,-49,-66,-46,-1,-39,-93,-87,35,-171,-20,-5,-7,-169
};

long weight_2_T_dev0[16*128] = {
-32,148,148,-110,-149,113,-54,-185,-119,-103,-11,-43,-90,-27,97,-12,-204,120,32,32,-97,-167,108,-145,100,-189,66,-197,14,-127,41,-43,126,-205,52,-29,14,-126,-78,109,-24,-53,-13,-13,-203,5,-46,30,-110,-61,30,71,-102,13,-93,-147,-18,53,52,-19,-185,-146,39,-176,12,-105,-150,73,-83,82,129,34,61,-182,117,99,-104,45,-83,-191,-84,-180,-55,-189,137,5,97,-180,-6,-88,-94,-108,-113,-49,184,117,-99,-162,-184,-112,-9,-153,-177,-68,31,-134,-148,-61,47,160,61,-50,86,-93,-192,-38,12,83,104,-98,-171,-122,-15,-90,186,81,-55,-82
,-20,-541,106,-96,-1530,-519,-746,-14,-36,-49,136,-188,397,131,374,187,-236,-784,133,-113,8,-137,-726,37,-213,-1704,427,325,-963,136,138,540,16,-5,-113,-77,-1143,95,-33,70,-530,28,-113,-291,-30,-53,234,-115,173,-158,-546,-30,100,11,133,57,-776,355,213,259,322,50,167,152,-164,27,310,19,-377,-276,197,-2303,154,92,81,-19,362,136,333,-2575,-72,78,-195,-31,427,695,-280,132,254,-873,45,-51,204,89,148,438,-82,255,-173,40,-43,-218,70,236,-1158,266,-1474,-162,-1217,-58,33,-169,-132,-140,182,-15,-620,-3119,-490,88,13,-119,-1600,-12,166,-2340,382,152
,-6,-540,284,-69,-1390,-900,-1064,-191,361,247,-182,-199,-60,98,33,256,-32,-1199,176,-150,-123,-147,-454,164,129,-1759,-180,15,-869,-70,-91,-185,39,85,12,23,-632,-244,19,92,-169,125,-230,-253,120,-105,344,240,32,-148,-261,70,-156,50,89,-93,-758,-249,269,-418,357,154,76,-167,-62,-212,203,-58,60,-161,-178,-2608,-111,333,325,52,36,176,637,-3020,-303,263,-267,-186,268,982,-622,242,-410,-520,120,72,-61,105,310,161,189,72,49,-218,-94,-34,-70,242,-901,-35,-1231,-545,-1098,27,-178,38,-13,114,68,76,-534,-3727,-508,-86,-148,1,-2402,117,254,-2294,433,53
,250,-143,172,-4,-760,-271,-400,108,-161,2,196,-797,213,-30,-222,132,103,90,98,-168,-164,-53,-808,100,-1131,-146,169,-225,-167,222,-38,-386,21,188,60,163,-1098,323,-423,29,-366,94,-251,-189,200,303,117,9,27,-455,-92,203,10,122,407,-1,771,-31,167,288,-4,98,411,-57,-284,-172,181,182,-89,23,52,-60,-91,-263,275,266,-294,69,-222,132,-290,-120,-171,45,38,340,430,113,35,-645,-405,-146,320,-21,351,20,193,205,-185,44,48,193,-259,-170,-836,-252,191,-583,-1060,-808,182,-31,-18,119,19,-88,-999,925,-512,199,-177,-136,157,147,105,1200,-106,-405
,307,-277,112,-191,-984,-163,-603,156,-67,-218,132,-253,291,241,329,110,-62,-583,-104,36,-174,35,-754,97,-180,-1311,279,-24,-278,112,-3,704,-41,235,149,375,-786,88,879,22,-439,301,-170,-257,164,256,29,91,122,-503,-107,258,-167,243,197,329,-664,191,129,43,51,221,158,226,-21,-260,422,-100,99,266,-190,-2227,266,395,-131,141,1205,55,115,-2138,1400,-4,-291,-141,-104,866,-496,27,276,-878,150,150,-42,309,215,199,34,316,-327,12,35,-71,234,-43,-984,171,-1414,-276,-868,-310,-8,-17,-141,-111,152,40,-268,-2596,-622,324,242,5,-1263,160,82,-2428,715,60
,270,-495,-28,-365,302,-547,135,124,-580,-235,-18,-306,377,284,307,294,-153,280,348,94,123,-201,-812,-387,-53,85,365,71,-638,-6,-209,-561,-218,331,248,184,-306,-33,-619,420,-492,-624,228,-17,30,21,-643,3,402,-195,-553,-468,-387,33,91,324,168,176,-125,753,634,-524,-371,526,-714,-715,295,-179,-120,-329,70,431,230,-400,-457,252,-1043,383,-880,170,-1014,-617,13,-329,469,-1115,291,164,387,-420,-367,53,-607,-186,367,-55,94,-453,-421,97,203,-469,288,331,-246,577,488,-217,-310,-310,-166,174,-41,-88,191,-1,-324,665,-36,-817,197,-315,565,-210,497,609,-396,92
,52,-520,78,-29,-1579,-621,-749,90,115,-32,69,166,-161,77,19,163,-145,-801,184,-95,-115,175,-270,-262,101,-1646,-89,14,-70,-131,-97,152,-36,237,98,-35,-585,182,530,157,189,114,-62,64,78,154,64,-118,-8,-306,-3,9,-118,50,62,106,-846,-83,278,519,314,451,170,38,299,-133,228,67,112,256,34,-2282,128,182,-145,142,845,122,271,-2439,980,-287,-250,122,-88,932,-442,-121,83,-655,-396,71,101,301,-68,-73,137,352,-47,211,-32,77,87,-43,-826,75,-983,-244,-1430,74,-46,207,36,40,-10,120,-611,-2953,-587,218,184,74,-1545,156,321,-2016,419,54
,-547,-24,-261,-27,-606,-196,-244,-74,137,31,-140,122,77,149,-743,345,118,-47,-612,-13,185,-285,-312,-192,-102,29,-360,-447,242,-473,-1,-298,102,-49,-248,-224,-286,141,-1369,433,-26,305,70,-125,58,-378,231,-57,-247,-356,318,343,-23,101,-638,-244,384,-243,264,399,-238,27,44,89,-235,-107,198,-193,125,117,113,-117,-90,-494,-67,31,-1503,-470,-266,-288,-1578,-357,-357,17,109,-248,536,-659,542,-187,-749,-124,273,-217,310,786,170,223,-88,417,203,2,-646,167,-130,-1023,376,-20,-366,-69,168,-190,86,123,-126,101,-369,242,-755,297,-100,-208,314,299,293,523,-273,-315
,185,-548,-24,-154,-1117,-517,-724,82,-233,-49,-147,43,170,97,22,77,126,-347,121,215,209,-224,-343,-304,-174,-1469,352,-23,-238,179,-213,703,32,274,230,323,-799,225,1108,58,-141,109,-202,-139,226,-22,175,78,211,-318,-164,30,-63,83,517,134,-861,232,303,352,-25,516,-113,196,-97,16,402,-70,42,314,-3,-2127,-24,278,-453,-157,1441,326,-122,-2248,1207,-241,-175,71,-48,873,-328,240,311,-707,-171,283,323,18,31,423,49,440,-258,314,-13,-372,135,38,-759,-64,-1399,-238,-1066,-245,-77,-65,82,20,173,154,-479,-2625,-748,182,302,-222,-1299,72,66,-2350,630,235
,81,555,212,-226,279,252,119,104,-611,-362,-208,397,201,327,538,25,-153,49,467,-178,170,9,-284,-629,213,-168,473,75,-323,60,-270,-738,4,349,97,358,231,222,-431,362,91,115,180,-108,16,217,-157,142,327,-310,-230,-190,-244,236,93,184,-85,171,264,355,-128,-217,-97,407,-74,-9,51,34,347,152,-34,334,104,-467,-530,-65,-848,0,-622,264,-1183,-563,-167,187,445,-861,155,245,517,-445,-223,457,232,-308,385,79,43,-250,-277,334,-206,-414,278,119,-221,617,682,-126,-161,168,-150,-134,-43,150,-92,-70,-36,839,447,134,281,-306,499,313,196,630,-324,291
,36,646,-3,-260,-106,490,274,-151,-557,-175,-11,525,-9,209,183,171,-97,54,304,115,-56,-70,-88,-281,21,304,301,192,-55,305,-175,-875,-59,122,249,158,155,156,-792,163,192,-180,-22,-48,298,115,79,-9,388,-170,-219,-52,-508,319,-63,86,-115,213,92,498,-117,-436,236,296,-173,252,141,-153,337,337,-37,773,149,-486,-543,-1,-1151,284,-548,705,-1082,-505,84,-226,283,-779,571,313,281,-109,-131,236,-150,-207,194,263,12,-378,-458,458,76,-401,251,140,100,384,387,-151,-87,331,-24,333,60,-44,-85,-48,114,907,167,-130,345,-224,155,189,383,119,-485,302
,194,580,193,-59,345,280,98,142,-358,-99,-7,99,106,351,432,408,-201,140,233,-164,64,96,-591,-738,71,149,347,-39,-410,8,-226,-529,125,408,57,72,141,-192,-480,332,-143,-525,501,211,252,-3,-484,91,220,-310,-661,-364,-365,226,111,39,119,341,-154,262,271,-29,86,275,-78,292,-55,136,2,-258,116,687,16,-208,-389,306,-839,-19,-557,248,-1146,-367,108,114,256,-665,137,230,348,-446,-268,199,-238,-121,85,162,215,-186,-394,270,219,-148,504,310,-349,209,324,-200,140,81,-85,50,-127,231,73,-76,-89,698,602,-594,151,-25,332,-233,217,508,-186,199
,-147,-109,-175,-83,56,-49,-78,65,57,-115,-19,-119,-89,-227,-118,-178,154,4,88,-35,-152,-49,-255,-152,-62,8,-238,-179,56,-206,-32,144,198,16,-47,116,-196,-155,31,160,99,-9,12,45,126,-152,78,47,-206,-45,127,84,-20,-251,-189,54,-63,-126,-250,63,-186,99,-71,-215,59,0,90,-168,97,-241,151,-101,-110,-103,173,-80,66,62,-36,-86,-153,-117,35,-161,-92,-210,-3,119,-109,61,-62,78,-170,-44,129,-66,-59,96,-58,201,-34,49,-187,-12,17,90,-174,-141,-59,-129,98,-117,-148,35,-155,20,184,-171,-204,21,-53,21,120,-60,-33,127,-67,-52
,240,-579,152,-263,-1085,-722,-855,-64,73,88,175,-69,385,299,107,346,157,-272,-14,-183,-159,-88,-587,-177,-315,-1333,186,295,-75,281,-305,676,-123,155,214,343,-1056,53,872,31,-157,169,-100,30,82,213,242,-39,304,-229,95,57,-222,48,511,113,-1016,429,327,204,86,88,-12,134,-193,-178,122,-94,98,282,3,-1975,126,200,-32,133,1109,71,383,-2094,1098,-164,-117,-109,-24,990,-496,151,209,-609,-117,154,242,110,39,267,-41,208,-139,343,-223,55,256,62,-521,38,-1411,-244,-845,-250,102,110,46,-35,-53,-178,-539,-2492,-731,321,-90,-130,-1487,25,161,-2145,519,150
,109,-112,170,-201,-953,-336,-143,-6,27,-210,180,-964,531,-18,-143,383,153,-94,-340,113,157,-229,-987,152,-1186,-148,-226,-346,18,307,207,-650,101,201,227,478,-1155,509,-316,3,-449,-6,227,-310,-104,-82,242,-144,31,-408,-419,224,-112,13,83,242,721,-128,332,426,-191,166,177,-155,-331,-36,493,-61,48,277,-2,203,96,-85,167,226,-582,52,-526,188,-386,-527,-160,-1,92,6,364,0,40,-863,-632,-206,254,36,207,309,121,-33,-129,-6,160,-9,-74,-89,-870,-69,442,-444,-1107,-661,-108,152,-99,198,76,-129,-1002,542,-562,264,186,-6,37,7,125,1310,-283,-356
,134,570,54,-217,175,218,-8,96,-669,-567,-256,562,297,297,390,174,-212,147,295,-111,144,14,-277,-576,178,-231,134,62,-293,410,-362,-629,-87,364,309,464,-20,216,-739,229,-212,-174,14,-34,403,261,-49,-143,212,-238,-580,-12,-152,157,331,221,173,224,208,574,-32,-322,-99,428,-67,101,225,-18,-81,362,48,341,309,-452,-338,349,-873,229,-793,466,-1170,-528,-312,-2,363,-901,539,51,393,-529,-328,371,-83,-173,99,114,24,-89,-702,231,-58,-274,367,-69,-85,340,593,-148,-401,156,-50,-145,65,-165,60,-69,119,657,537,-104,21,-346,298,261,447,600,-367,157
};

long bias_2_dev0[1*16] = {
-48037,145356,277042,-2400,235141,160101,194636,-21990,220295,146517,119816,130429,-85022,241340,97660,140272
};

long weight_3_T_dev0[1*16] = {
-3,-1730,-1949,325,-1167,961,-1816,780,-1330,980,224,413,-68,-1369,658,637
};

long bias_3_dev0[1*1] = {
53907800
};

#endif
